<?xml version="1.0" encoding="UTF-8" standalone="yes"?>
<PMML xmlns="http://www.dmg.org/PMML-4_4" xmlns:data="http://jpmml.org/jpmml-model/InlineTable" version="4.4">
	<Header>
		<Application name="JPMML-SkLearn library" version="1.7.8"/>
		<Timestamp>2022-06-19T18:24:19Z</Timestamp>
	</Header>
	<MiningBuildTask>
		<Extension name="repr">PMMLPipeline(steps=[('forest', RandomForestClassifier(bootstrap=True, ccp_alpha=0.0, class_weight=None,
                       criterion='gini', max_depth=None, max_features='auto',
                       max_leaf_nodes=None, max_samples=None,
                       min_impurity_decrease=0.0, min_impurity_split=None,
                       min_samples_leaf=1, min_samples_split=2,
                       min_weight_fraction_leaf=0.0, n_estimators=100,
                       n_jobs=None, oob_score=False, random_state=None,
                       verbose=0, warm_start=False))])</Extension>
	</MiningBuildTask>
	<DataDictionary>
		<DataField name="y" optype="categorical" dataType="integer">
			<Value value="0"/>
			<Value value="1"/>
		</DataField>
		<DataField name="x1" optype="continuous" dataType="float"/>
		<DataField name="x2" optype="continuous" dataType="float"/>
		<DataField name="x3" optype="continuous" dataType="float"/>
		<DataField name="x4" optype="continuous" dataType="float"/>
		<DataField name="x5" optype="continuous" dataType="float"/>
		<DataField name="x6" optype="continuous" dataType="float"/>
		<DataField name="x7" optype="continuous" dataType="float"/>
		<DataField name="x8" optype="continuous" dataType="float"/>
		<DataField name="x9" optype="continuous" dataType="float"/>
		<DataField name="x10" optype="continuous" dataType="float"/>
		<DataField name="x11" optype="continuous" dataType="float"/>
		<DataField name="x12" optype="continuous" dataType="float"/>
		<DataField name="x13" optype="continuous" dataType="float"/>
		<DataField name="x14" optype="continuous" dataType="float"/>
		<DataField name="x15" optype="continuous" dataType="float"/>
		<DataField name="x16" optype="continuous" dataType="float"/>
		<DataField name="x17" optype="continuous" dataType="float"/>
		<DataField name="x18" optype="continuous" dataType="float"/>
		<DataField name="x19" optype="continuous" dataType="float"/>
		<DataField name="x20" optype="continuous" dataType="float"/>
		<DataField name="x21" optype="continuous" dataType="float"/>
		<DataField name="x22" optype="continuous" dataType="float"/>
		<DataField name="x23" optype="continuous" dataType="float"/>
		<DataField name="x24" optype="continuous" dataType="float"/>
		<DataField name="x25" optype="continuous" dataType="float"/>
		<DataField name="x26" optype="continuous" dataType="float"/>
		<DataField name="x27" optype="continuous" dataType="float"/>
		<DataField name="x28" optype="continuous" dataType="float"/>
		<DataField name="x29" optype="continuous" dataType="float"/>
		<DataField name="x30" optype="continuous" dataType="float"/>
	</DataDictionary>
	<MiningModel functionName="classification" algorithmName="sklearn.ensemble._forest.RandomForestClassifier">
		<MiningSchema>
			<MiningField name="y" usageType="target"/>
			<MiningField name="x15"/>
			<MiningField name="x22"/>
			<MiningField name="x23"/>
			<MiningField name="x6"/>
			<MiningField name="x19"/>
			<MiningField name="x30"/>
			<MiningField name="x16"/>
			<MiningField name="x4"/>
			<MiningField name="x27"/>
			<MiningField name="x17"/>
			<MiningField name="x28"/>
			<MiningField name="x24"/>
			<MiningField name="x1"/>
			<MiningField name="x2"/>
			<MiningField name="x12"/>
			<MiningField name="x29"/>
			<MiningField name="x3"/>
			<MiningField name="x14"/>
			<MiningField name="x9"/>
			<MiningField name="x21"/>
			<MiningField name="x26"/>
			<MiningField name="x18"/>
			<MiningField name="x10"/>
			<MiningField name="x7"/>
			<MiningField name="x11"/>
			<MiningField name="x13"/>
			<MiningField name="x5"/>
			<MiningField name="x25"/>
			<MiningField name="x20"/>
			<MiningField name="x8"/>
		</MiningSchema>
		<Output>
			<OutputField name="probability(0)" optype="continuous" dataType="double" feature="probability" value="0"/>
			<OutputField name="probability(1)" optype="continuous" dataType="double" feature="probability" value="1"/>
		</Output>
		<LocalTransformations>
			<DerivedField name="double(x15)" optype="continuous" dataType="double">
				<FieldRef field="x15"/>
			</DerivedField>
			<DerivedField name="double(x22)" optype="continuous" dataType="double">
				<FieldRef field="x22"/>
			</DerivedField>
			<DerivedField name="double(x23)" optype="continuous" dataType="double">
				<FieldRef field="x23"/>
			</DerivedField>
			<DerivedField name="double(x6)" optype="continuous" dataType="double">
				<FieldRef field="x6"/>
			</DerivedField>
			<DerivedField name="double(x19)" optype="continuous" dataType="double">
				<FieldRef field="x19"/>
			</DerivedField>
			<DerivedField name="double(x30)" optype="continuous" dataType="double">
				<FieldRef field="x30"/>
			</DerivedField>
			<DerivedField name="double(x16)" optype="continuous" dataType="double">
				<FieldRef field="x16"/>
			</DerivedField>
			<DerivedField name="double(x4)" optype="continuous" dataType="double">
				<FieldRef field="x4"/>
			</DerivedField>
			<DerivedField name="double(x27)" optype="continuous" dataType="double">
				<FieldRef field="x27"/>
			</DerivedField>
			<DerivedField name="double(x17)" optype="continuous" dataType="double">
				<FieldRef field="x17"/>
			</DerivedField>
			<DerivedField name="double(x28)" optype="continuous" dataType="double">
				<FieldRef field="x28"/>
			</DerivedField>
			<DerivedField name="double(x24)" optype="continuous" dataType="double">
				<FieldRef field="x24"/>
			</DerivedField>
			<DerivedField name="double(x1)" optype="continuous" dataType="double">
				<FieldRef field="x1"/>
			</DerivedField>
			<DerivedField name="double(x2)" optype="continuous" dataType="double">
				<FieldRef field="x2"/>
			</DerivedField>
			<DerivedField name="double(x12)" optype="continuous" dataType="double">
				<FieldRef field="x12"/>
			</DerivedField>
			<DerivedField name="double(x29)" optype="continuous" dataType="double">
				<FieldRef field="x29"/>
			</DerivedField>
			<DerivedField name="double(x3)" optype="continuous" dataType="double">
				<FieldRef field="x3"/>
			</DerivedField>
			<DerivedField name="double(x14)" optype="continuous" dataType="double">
				<FieldRef field="x14"/>
			</DerivedField>
			<DerivedField name="double(x9)" optype="continuous" dataType="double">
				<FieldRef field="x9"/>
			</DerivedField>
			<DerivedField name="double(x21)" optype="continuous" dataType="double">
				<FieldRef field="x21"/>
			</DerivedField>
			<DerivedField name="double(x26)" optype="continuous" dataType="double">
				<FieldRef field="x26"/>
			</DerivedField>
			<DerivedField name="double(x18)" optype="continuous" dataType="double">
				<FieldRef field="x18"/>
			</DerivedField>
			<DerivedField name="double(x10)" optype="continuous" dataType="double">
				<FieldRef field="x10"/>
			</DerivedField>
			<DerivedField name="double(x7)" optype="continuous" dataType="double">
				<FieldRef field="x7"/>
			</DerivedField>
			<DerivedField name="double(x11)" optype="continuous" dataType="double">
				<FieldRef field="x11"/>
			</DerivedField>
			<DerivedField name="double(x13)" optype="continuous" dataType="double">
				<FieldRef field="x13"/>
			</DerivedField>
			<DerivedField name="double(x5)" optype="continuous" dataType="double">
				<FieldRef field="x5"/>
			</DerivedField>
			<DerivedField name="double(x25)" optype="continuous" dataType="double">
				<FieldRef field="x25"/>
			</DerivedField>
			<DerivedField name="double(x20)" optype="continuous" dataType="double">
				<FieldRef field="x20"/>
			</DerivedField>
			<DerivedField name="double(x8)" optype="continuous" dataType="double">
				<FieldRef field="x8"/>
			</DerivedField>
		</LocalTransformations>
		<Segmentation multipleModelMethod="average">
			<Segment id="1">
				<True/>
				<TreeModel functionName="classification" missingValueStrategy="nullPrediction">
					<MiningSchema>
						<MiningField name="double(x15)"/>
						<MiningField name="double(x22)"/>
						<MiningField name="double(x23)"/>
						<MiningField name="double(x6)"/>
						<MiningField name="double(x19)"/>
						<MiningField name="double(x30)"/>
						<MiningField name="double(x16)"/>
						<MiningField name="double(x4)"/>
						<MiningField name="double(x27)"/>
						<MiningField name="double(x17)"/>
						<MiningField name="double(x28)"/>
						<MiningField name="double(x24)"/>
						<MiningField name="double(x1)"/>
						<MiningField name="double(x2)"/>
						<MiningField name="double(x12)"/>
						<MiningField name="double(x29)"/>
						<MiningField name="double(x3)"/>
						<MiningField name="double(x14)"/>
						<MiningField name="double(x9)"/>
						<MiningField name="double(x21)"/>
						<MiningField name="double(x26)"/>
						<MiningField name="double(x18)"/>
						<MiningField name="double(x10)"/>
						<MiningField name="double(x7)"/>
						<MiningField name="double(x11)"/>
						<MiningField name="double(x13)"/>
						<MiningField name="double(x5)"/>
						<MiningField name="double(x25)"/>
						<MiningField name="double(x20)"/>
					</MiningSchema>
					<Node>
						<True/>
						<Node>
							<SimplePredicate field="double(x15)" operator="lessOrEqual" value="2787.0"/>
							<Node>
								<SimplePredicate field="double(x22)" operator="lessOrEqual" value="0.5"/>
								<Node>
									<SimplePredicate field="double(x23)" operator="lessOrEqual" value="4.5"/>
									<Node>
										<SimplePredicate field="double(x6)" operator="lessOrEqual" value="1.5"/>
										<Node>
											<SimplePredicate field="double(x19)" operator="lessOrEqual" value="13.5"/>
											<Node>
												<SimplePredicate field="double(x30)" operator="lessOrEqual" value="34.5"/>
												<Node score="0" recordCount="1">
													<SimplePredicate field="double(x16)" operator="lessOrEqual" value="5537.0"/>
													<ScoreDistribution value="0" recordCount="1"/>
													<ScoreDistribution value="1" recordCount="0"/>
												</Node>
												<Node score="1" recordCount="9">
													<True/>
													<ScoreDistribution value="0" recordCount="0"/>
													<ScoreDistribution value="1" recordCount="9"/>
												</Node>
											</Node>
											<Node score="0" recordCount="2">
												<True/>
												<ScoreDistribution value="0" recordCount="2"/>
												<ScoreDistribution value="1" recordCount="0"/>
											</Node>
										</Node>
										<Node>
											<SimplePredicate field="double(x4)" operator="lessOrEqual" value="9.5"/>
											<Node>
												<SimplePredicate field="double(x27)" operator="lessOrEqual" value="0.5"/>
												<Node>
													<SimplePredicate field="double(x17)" operator="lessOrEqual" value="4.0"/>
													<Node score="0" recordCount="4">
														<SimplePredicate field="double(x28)" operator="lessOrEqual" value="0.5"/>
														<ScoreDistribution value="0" recordCount="4"/>
														<ScoreDistribution value="1" recordCount="0"/>
													</Node>
													<Node score="1" recordCount="2">
														<True/>
														<ScoreDistribution value="0" recordCount="0"/>
														<ScoreDistribution value="1" recordCount="2"/>
													</Node>
												</Node>
												<Node score="1" recordCount="2">
													<True/>
													<ScoreDistribution value="0" recordCount="0"/>
													<ScoreDistribution value="1" recordCount="2"/>
												</Node>
											</Node>
											<Node score="0" recordCount="7">
												<True/>
												<ScoreDistribution value="0" recordCount="7"/>
												<ScoreDistribution value="1" recordCount="0"/>
											</Node>
										</Node>
										<Node score="1" recordCount="4">
											<SimplePredicate field="double(x24)" operator="lessOrEqual" value="4.0"/>
											<ScoreDistribution value="0" recordCount="0"/>
											<ScoreDistribution value="1" recordCount="4"/>
										</Node>
										<Node score="0" recordCount="1">
											<True/>
											<ScoreDistribution value="0" recordCount="1"/>
											<ScoreDistribution value="1" recordCount="0"/>
										</Node>
									</Node>
									<Node>
										<SimplePredicate field="double(x4)" operator="lessOrEqual" value="3.5"/>
										<Node score="1" recordCount="2">
											<SimplePredicate field="double(x1)" operator="lessOrEqual" value="1.5"/>
											<ScoreDistribution value="0" recordCount="0"/>
											<ScoreDistribution value="1" recordCount="2"/>
										</Node>
										<Node score="1" recordCount="2">
											<SimplePredicate field="double(x2)" operator="lessOrEqual" value="926.5"/>
											<ScoreDistribution value="0" recordCount="0"/>
											<ScoreDistribution value="1" recordCount="2"/>
										</Node>
										<Node score="0" recordCount="3">
											<True/>
											<ScoreDistribution value="0" recordCount="3"/>
											<ScoreDistribution value="1" recordCount="0"/>
										</Node>
									</Node>
									<Node score="1" recordCount="19">
										<SimplePredicate field="double(x12)" operator="lessOrEqual" value="7.0"/>
										<ScoreDistribution value="0" recordCount="0"/>
										<ScoreDistribution value="1" recordCount="19"/>
									</Node>
									<Node score="0" recordCount="1">
										<True/>
										<ScoreDistribution value="0" recordCount="1"/>
										<ScoreDistribution value="1" recordCount="0"/>
									</Node>
								</Node>
								<Node score="0" recordCount="16">
									<SimplePredicate field="double(x1)" operator="lessOrEqual" value="1.5"/>
									<ScoreDistribution value="0" recordCount="16"/>
									<ScoreDistribution value="1" recordCount="0"/>
								</Node>
								<Node>
									<SimplePredicate field="double(x2)" operator="lessOrEqual" value="565.0"/>
									<Node>
										<SimplePredicate field="double(x24)" operator="lessOrEqual" value="4.0"/>
										<Node>
											<SimplePredicate field="double(x2)" operator="lessOrEqual" value="281.0"/>
											<Node score="1" recordCount="2">
												<SimplePredicate field="double(x30)" operator="lessOrEqual" value="30.5"/>
												<ScoreDistribution value="0" recordCount="0"/>
												<ScoreDistribution value="1" recordCount="2"/>
											</Node>
											<Node score="0" recordCount="1">
												<True/>
												<ScoreDistribution value="0" recordCount="1"/>
												<ScoreDistribution value="1" recordCount="0"/>
											</Node>
										</Node>
										<Node score="1" recordCount="6">
											<True/>
											<ScoreDistribution value="0" recordCount="0"/>
											<ScoreDistribution value="1" recordCount="6"/>
										</Node>
									</Node>
									<Node score="0" recordCount="1">
										<True/>
										<ScoreDistribution value="0" recordCount="1"/>
										<ScoreDistribution value="1" recordCount="0"/>
									</Node>
								</Node>
								<Node score="0" recordCount="18">
									<SimplePredicate field="double(x29)" operator="lessOrEqual" value="4.0"/>
									<ScoreDistribution value="0" recordCount="18"/>
									<ScoreDistribution value="1" recordCount="0"/>
								</Node>
								<Node score="1" recordCount="3">
									<SimplePredicate field="double(x2)" operator="lessOrEqual" value="1182.0"/>
									<ScoreDistribution value="0" recordCount="0"/>
									<ScoreDistribution value="1" recordCount="3"/>
								</Node>
								<Node score="0" recordCount="1">
									<True/>
									<ScoreDistribution value="0" recordCount="1"/>
									<ScoreDistribution value="1" recordCount="0"/>
								</Node>
							</Node>
							<Node>
								<SimplePredicate field="double(x29)" operator="lessOrEqual" value="0.5"/>
								<Node>
									<SimplePredicate field="double(x3)" operator="lessOrEqual" value="1.5"/>
									<Node score="0" recordCount="9">
										<SimplePredicate field="double(x27)" operator="lessOrEqual" value="0.5"/>
										<ScoreDistribution value="0" recordCount="9"/>
										<ScoreDistribution value="1" recordCount="0"/>
									</Node>
									<Node score="1" recordCount="5">
										<SimplePredicate field="double(x14)" operator="lessOrEqual" value="0.5"/>
										<ScoreDistribution value="0" recordCount="0"/>
										<ScoreDistribution value="1" recordCount="5"/>
									</Node>
									<Node score="0" recordCount="3">
										<True/>
										<ScoreDistribution value="0" recordCount="3"/>
										<ScoreDistribution value="1" recordCount="0"/>
									</Node>
								</Node>
								<Node score="1" recordCount="3">
									<SimplePredicate field="double(x4)" operator="lessOrEqual" value="8.0"/>
									<ScoreDistribution value="0" recordCount="0"/>
									<ScoreDistribution value="1" recordCount="3"/>
								</Node>
								<Node score="0" recordCount="1">
									<SimplePredicate field="double(x6)" operator="lessOrEqual" value="1.5"/>
									<ScoreDistribution value="0" recordCount="1"/>
									<ScoreDistribution value="1" recordCount="0"/>
								</Node>
								<Node score="1" recordCount="1">
									<True/>
									<ScoreDistribution value="0" recordCount="0"/>
									<ScoreDistribution value="1" recordCount="1"/>
								</Node>
							</Node>
							<Node score="1" recordCount="1">
								<SimplePredicate field="double(x9)" operator="lessOrEqual" value="35.0"/>
								<ScoreDistribution value="0" recordCount="0"/>
								<ScoreDistribution value="1" recordCount="1"/>
							</Node>
							<Node>
								<SimplePredicate field="double(x28)" operator="lessOrEqual" value="6.5"/>
								<Node>
									<SimplePredicate field="double(x9)" operator="lessOrEqual" value="73.5"/>
									<Node score="0" recordCount="20">
										<SimplePredicate field="double(x4)" operator="lessOrEqual" value="13.5"/>
										<ScoreDistribution value="0" recordCount="20"/>
										<ScoreDistribution value="1" recordCount="0"/>
									</Node>
									<Node>
										<SimplePredicate field="double(x27)" operator="lessOrEqual" value="5.5"/>
										<Node score="0" recordCount="1">
											<SimplePredicate field="double(x21)" operator="lessOrEqual" value="2.0"/>
											<ScoreDistribution value="0" recordCount="1"/>
											<ScoreDistribution value="1" recordCount="0"/>
										</Node>
										<Node score="1" recordCount="7">
											<SimplePredicate field="double(x15)" operator="lessOrEqual" value="2661.5"/>
											<ScoreDistribution value="0" recordCount="0"/>
											<ScoreDistribution value="1" recordCount="7"/>
										</Node>
										<Node score="0" recordCount="1">
											<True/>
											<ScoreDistribution value="0" recordCount="1"/>
											<ScoreDistribution value="1" recordCount="0"/>
										</Node>
									</Node>
									<Node score="0" recordCount="5">
										<True/>
										<ScoreDistribution value="0" recordCount="5"/>
										<ScoreDistribution value="1" recordCount="0"/>
									</Node>
								</Node>
								<Node score="0" recordCount="34">
									<SimplePredicate field="double(x26)" operator="lessOrEqual" value="7.5"/>
									<ScoreDistribution value="0" recordCount="34"/>
									<ScoreDistribution value="1" recordCount="0"/>
								</Node>
								<Node score="0" recordCount="4">
									<SimplePredicate field="double(x18)" operator="lessOrEqual" value="0.5"/>
									<ScoreDistribution value="0" recordCount="4"/>
									<ScoreDistribution value="1" recordCount="0"/>
								</Node>
								<Node score="1" recordCount="1">
									<True/>
									<ScoreDistribution value="0" recordCount="0"/>
									<ScoreDistribution value="1" recordCount="1"/>
								</Node>
							</Node>
							<Node score="1" recordCount="1">
								<True/>
								<ScoreDistribution value="0" recordCount="0"/>
								<ScoreDistribution value="1" recordCount="1"/>
							</Node>
						</Node>
						<Node>
							<SimplePredicate field="double(x10)" operator="lessOrEqual" value="1.5"/>
							<Node>
								<SimplePredicate field="double(x24)" operator="lessOrEqual" value="2.5"/>
								<Node score="1" recordCount="2">
									<SimplePredicate field="double(x7)" operator="lessOrEqual" value="1.5"/>
									<ScoreDistribution value="0" recordCount="0"/>
									<ScoreDistribution value="1" recordCount="2"/>
								</Node>
								<Node score="0" recordCount="12">
									<True/>
									<ScoreDistribution value="0" recordCount="12"/>
									<ScoreDistribution value="1" recordCount="0"/>
								</Node>
							</Node>
							<Node score="1" recordCount="12">
								<SimplePredicate field="double(x30)" operator="lessOrEqual" value="34.5"/>
								<ScoreDistribution value="0" recordCount="0"/>
								<ScoreDistribution value="1" recordCount="12"/>
							</Node>
							<Node score="0" recordCount="6">
								<True/>
								<ScoreDistribution value="0" recordCount="6"/>
								<ScoreDistribution value="1" recordCount="0"/>
							</Node>
						</Node>
						<Node>
							<SimplePredicate field="double(x4)" operator="lessOrEqual" value="19.5"/>
							<Node>
								<SimplePredicate field="double(x2)" operator="lessOrEqual" value="1495.5"/>
								<Node>
									<SimplePredicate field="double(x30)" operator="lessOrEqual" value="26.5"/>
									<Node>
										<SimplePredicate field="double(x6)" operator="lessOrEqual" value="4.5"/>
										<Node score="0" recordCount="12">
											<SimplePredicate field="double(x7)" operator="lessOrEqual" value="1.5"/>
											<ScoreDistribution value="0" recordCount="12"/>
											<ScoreDistribution value="1" recordCount="0"/>
										</Node>
										<Node>
											<SimplePredicate field="double(x9)" operator="lessOrEqual" value="50.5"/>
											<Node>
												<SimplePredicate field="double(x14)" operator="lessOrEqual" value="1.5"/>
												<Node score="1" recordCount="1">
													<SimplePredicate field="double(x6)" operator="lessOrEqual" value="2.0"/>
													<ScoreDistribution value="0" recordCount="0"/>
													<ScoreDistribution value="1" recordCount="1"/>
												</Node>
												<Node score="0" recordCount="2">
													<True/>
													<ScoreDistribution value="0" recordCount="2"/>
													<ScoreDistribution value="1" recordCount="0"/>
												</Node>
											</Node>
											<Node score="1" recordCount="2">
												<True/>
												<ScoreDistribution value="0" recordCount="0"/>
												<ScoreDistribution value="1" recordCount="2"/>
											</Node>
										</Node>
										<Node>
											<SimplePredicate field="double(x27)" operator="lessOrEqual" value="1.0"/>
											<Node score="1" recordCount="1">
												<SimplePredicate field="double(x1)" operator="lessOrEqual" value="1.5"/>
												<ScoreDistribution value="0" recordCount="0"/>
												<ScoreDistribution value="1" recordCount="1"/>
											</Node>
											<Node score="0" recordCount="1">
												<True/>
												<ScoreDistribution value="0" recordCount="1"/>
												<ScoreDistribution value="1" recordCount="0"/>
											</Node>
										</Node>
										<Node score="0" recordCount="5">
											<True/>
											<ScoreDistribution value="0" recordCount="5"/>
											<ScoreDistribution value="1" recordCount="0"/>
										</Node>
									</Node>
									<Node score="1" recordCount="7">
										<True/>
										<ScoreDistribution value="0" recordCount="0"/>
										<ScoreDistribution value="1" recordCount="7"/>
									</Node>
								</Node>
								<Node>
									<SimplePredicate field="double(x11)" operator="lessOrEqual" value="2.5"/>
									<Node>
										<SimplePredicate field="double(x27)" operator="lessOrEqual" value="2.5"/>
										<Node>
											<SimplePredicate field="double(x15)" operator="lessOrEqual" value="7664.0"/>
											<Node>
												<SimplePredicate field="double(x14)" operator="lessOrEqual" value="1.5"/>
												<Node>
													<SimplePredicate field="double(x1)" operator="lessOrEqual" value="1.5"/>
													<Node score="0" recordCount="15">
														<SimplePredicate field="double(x18)" operator="lessOrEqual" value="0.5"/>
														<ScoreDistribution value="0" recordCount="15"/>
														<ScoreDistribution value="1" recordCount="0"/>
													</Node>
													<Node score="1" recordCount="2">
														<True/>
														<ScoreDistribution value="0" recordCount="0"/>
														<ScoreDistribution value="1" recordCount="2"/>
													</Node>
												</Node>
												<Node score="0" recordCount="60">
													<True/>
													<ScoreDistribution value="0" recordCount="60"/>
													<ScoreDistribution value="1" recordCount="0"/>
												</Node>
											</Node>
											<Node>
												<SimplePredicate field="double(x16)" operator="lessOrEqual" value="16104.0"/>
												<Node>
													<SimplePredicate field="double(x15)" operator="lessOrEqual" value="3692.5"/>
													<Node score="0" recordCount="4">
														<SimplePredicate field="double(x21)" operator="lessOrEqual" value="2.5"/>
														<ScoreDistribution value="0" recordCount="4"/>
														<ScoreDistribution value="1" recordCount="0"/>
													</Node>
													<Node score="1" recordCount="1">
														<SimplePredicate field="double(x13)" operator="lessOrEqual" value="3.5"/>
														<ScoreDistribution value="0" recordCount="0"/>
														<ScoreDistribution value="1" recordCount="1"/>
													</Node>
													<Node score="0" recordCount="1">
														<True/>
														<ScoreDistribution value="0" recordCount="1"/>
														<ScoreDistribution value="1" recordCount="0"/>
													</Node>
												</Node>
												<Node score="0" recordCount="18">
													<True/>
													<ScoreDistribution value="0" recordCount="18"/>
													<ScoreDistribution value="1" recordCount="0"/>
												</Node>
											</Node>
											<Node score="0" recordCount="5">
												<SimplePredicate field="double(x12)" operator="lessOrEqual" value="5.0"/>
												<ScoreDistribution value="0" recordCount="5"/>
												<ScoreDistribution value="1" recordCount="0"/>
											</Node>
											<Node score="1" recordCount="4">
												<SimplePredicate field="double(x26)" operator="lessOrEqual" value="3.5"/>
												<ScoreDistribution value="0" recordCount="0"/>
												<ScoreDistribution value="1" recordCount="4"/>
											</Node>
											<Node score="0" recordCount="1">
												<SimplePredicate field="double(x28)" operator="lessOrEqual" value="0.5"/>
												<ScoreDistribution value="0" recordCount="1"/>
												<ScoreDistribution value="1" recordCount="0"/>
											</Node>
											<Node score="1" recordCount="1">
												<SimplePredicate field="double(x21)" operator="lessOrEqual" value="3.5"/>
												<ScoreDistribution value="0" recordCount="0"/>
												<ScoreDistribution value="1" recordCount="1"/>
											</Node>
											<Node score="0" recordCount="1">
												<True/>
												<ScoreDistribution value="0" recordCount="1"/>
												<ScoreDistribution value="1" recordCount="0"/>
											</Node>
										</Node>
										<Node score="0" recordCount="1">
											<SimplePredicate field="double(x5)" operator="lessOrEqual" value="3.5"/>
											<ScoreDistribution value="0" recordCount="1"/>
											<ScoreDistribution value="1" recordCount="0"/>
										</Node>
										<Node score="1" recordCount="1">
											<True/>
											<ScoreDistribution value="0" recordCount="0"/>
											<ScoreDistribution value="1" recordCount="1"/>
										</Node>
									</Node>
									<Node>
										<SimplePredicate field="double(x28)" operator="lessOrEqual" value="6.5"/>
										<Node score="0" recordCount="70">
											<SimplePredicate field="double(x4)" operator="lessOrEqual" value="6.5"/>
											<ScoreDistribution value="0" recordCount="70"/>
											<ScoreDistribution value="1" recordCount="0"/>
										</Node>
										<Node>
											<SimplePredicate field="double(x29)" operator="lessOrEqual" value="2.0"/>
											<Node score="0" recordCount="3">
												<SimplePredicate field="double(x25)" operator="lessOrEqual" value="2.5"/>
												<ScoreDistribution value="0" recordCount="3"/>
												<ScoreDistribution value="1" recordCount="0"/>
											</Node>
											<Node score="1" recordCount="1">
												<True/>
												<ScoreDistribution value="0" recordCount="0"/>
												<ScoreDistribution value="1" recordCount="1"/>
											</Node>
										</Node>
										<Node score="0" recordCount="51">
											<True/>
											<ScoreDistribution value="0" recordCount="51"/>
											<ScoreDistribution value="1" recordCount="0"/>
										</Node>
									</Node>
									<Node score="1" recordCount="1">
										<SimplePredicate field="double(x26)" operator="lessOrEqual" value="8.0"/>
										<ScoreDistribution value="0" recordCount="0"/>
										<ScoreDistribution value="1" recordCount="1"/>
									</Node>
									<Node score="0" recordCount="8">
										<True/>
										<ScoreDistribution value="0" recordCount="8"/>
										<ScoreDistribution value="1" recordCount="0"/>
									</Node>
								</Node>
								<Node>
									<SimplePredicate field="double(x12)" operator="lessOrEqual" value="6.5"/>
									<Node>
										<SimplePredicate field="double(x15)" operator="lessOrEqual" value="19853.0"/>
										<Node>
											<SimplePredicate field="double(x9)" operator="lessOrEqual" value="99.5"/>
											<Node score="0" recordCount="114">
												<SimplePredicate field="double(x17)" operator="lessOrEqual" value="5.5"/>
												<ScoreDistribution value="0" recordCount="114"/>
												<ScoreDistribution value="1" recordCount="0"/>
											</Node>
											<Node>
												<SimplePredicate field="double(x16)" operator="lessOrEqual" value="22247.5"/>
												<Node score="0" recordCount="25">
													<SimplePredicate field="double(x30)" operator="lessOrEqual" value="57.0"/>
													<ScoreDistribution value="0" recordCount="25"/>
													<ScoreDistribution value="1" recordCount="0"/>
												</Node>
												<Node score="1" recordCount="1">
													<SimplePredicate field="double(x20)" operator="lessOrEqual" value="3.5"/>
													<ScoreDistribution value="0" recordCount="0"/>
													<ScoreDistribution value="1" recordCount="1"/>
												</Node>
												<Node score="0" recordCount="1">
													<True/>
													<ScoreDistribution value="0" recordCount="1"/>
													<ScoreDistribution value="1" recordCount="0"/>
												</Node>
											</Node>
											<Node>
												<SimplePredicate field="double(x17)" operator="lessOrEqual" value="8.0"/>
												<Node score="1" recordCount="4">
													<SimplePredicate field="double(x19)" operator="lessOrEqual" value="12.5"/>
													<ScoreDistribution value="0" recordCount="0"/>
													<ScoreDistribution value="1" recordCount="4"/>
												</Node>
												<Node score="0" recordCount="1">
													<True/>
													<ScoreDistribution value="0" recordCount="1"/>
													<ScoreDistribution value="1" recordCount="0"/>
												</Node>
											</Node>
											<Node score="0" recordCount="2">
												<True/>
												<ScoreDistribution value="0" recordCount="2"/>
												<ScoreDistribution value="1" recordCount="0"/>
											</Node>
										</Node>
										<Node score="1" recordCount="1">
											<True/>
											<ScoreDistribution value="0" recordCount="0"/>
											<ScoreDistribution value="1" recordCount="1"/>
										</Node>
									</Node>
									<Node score="0" recordCount="1">
										<SimplePredicate field="double(x14)" operator="lessOrEqual" value="0.5"/>
										<ScoreDistribution value="0" recordCount="1"/>
										<ScoreDistribution value="1" recordCount="0"/>
									</Node>
									<Node score="1" recordCount="2">
										<True/>
										<ScoreDistribution value="0" recordCount="0"/>
										<ScoreDistribution value="1" recordCount="2"/>
									</Node>
								</Node>
								<Node score="0" recordCount="12">
									<SimplePredicate field="double(x2)" operator="lessOrEqual" value="351.5"/>
									<ScoreDistribution value="0" recordCount="12"/>
									<ScoreDistribution value="1" recordCount="0"/>
								</Node>
								<Node>
									<SimplePredicate field="double(x22)" operator="lessOrEqual" value="1.5"/>
									<Node score="0" recordCount="9">
										<SimplePredicate field="double(x28)" operator="lessOrEqual" value="2.5"/>
										<ScoreDistribution value="0" recordCount="9"/>
										<ScoreDistribution value="1" recordCount="0"/>
									</Node>
									<Node score="0" recordCount="3">
										<SimplePredicate field="double(x9)" operator="lessOrEqual" value="43.0"/>
										<ScoreDistribution value="0" recordCount="3"/>
										<ScoreDistribution value="1" recordCount="0"/>
									</Node>
									<Node score="1" recordCount="8">
										<SimplePredicate field="double(x2)" operator="lessOrEqual" value="1041.0"/>
										<ScoreDistribution value="0" recordCount="0"/>
										<ScoreDistribution value="1" recordCount="8"/>
									</Node>
									<Node score="0" recordCount="1">
										<SimplePredicate field="double(x2)" operator="lessOrEqual" value="1128.0"/>
										<ScoreDistribution value="0" recordCount="1"/>
										<ScoreDistribution value="1" recordCount="0"/>
									</Node>
									<Node score="1" recordCount="1">
										<True/>
										<ScoreDistribution value="0" recordCount="0"/>
										<ScoreDistribution value="1" recordCount="1"/>
									</Node>
								</Node>
								<Node score="0" recordCount="4">
									<True/>
									<ScoreDistribution value="0" recordCount="4"/>
									<ScoreDistribution value="1" recordCount="0"/>
								</Node>
							</Node>
							<Node score="1" recordCount="2">
								<SimplePredicate field="double(x16)" operator="lessOrEqual" value="21015.0"/>
								<ScoreDistribution value="0" recordCount="0"/>
								<ScoreDistribution value="1" recordCount="2"/>
							</Node>
							<Node score="0" recordCount="1">
								<True/>
								<ScoreDistribution value="0" recordCount="1"/>
								<ScoreDistribution value="1" recordCount="0"/>
							</Node>
						</Node>
						<Node>
							<SimplePredicate field="double(x23)" operator="lessOrEqual" value="34.5"/>
							<Node>
								<SimplePredicate field="double(x19)" operator="lessOrEqual" value="21.5"/>
								<Node>
									<SimplePredicate field="double(x15)" operator="lessOrEqual" value="4296.0"/>
									<Node>
										<SimplePredicate field="double(x19)" operator="lessOrEqual" value="18.5"/>
										<Node>
											<SimplePredicate field="double(x25)" operator="lessOrEqual" value="3.5"/>
											<Node score="0" recordCount="10">
												<SimplePredicate field="double(x12)" operator="lessOrEqual" value="6.5"/>
												<ScoreDistribution value="0" recordCount="10"/>
												<ScoreDistribution value="1" recordCount="0"/>
											</Node>
											<Node score="1" recordCount="1">
												<SimplePredicate field="double(x17)" operator="lessOrEqual" value="3.5"/>
												<ScoreDistribution value="0" recordCount="0"/>
												<ScoreDistribution value="1" recordCount="1"/>
											</Node>
											<Node score="0" recordCount="2">
												<True/>
												<ScoreDistribution value="0" recordCount="2"/>
												<ScoreDistribution value="1" recordCount="0"/>
											</Node>
										</Node>
										<Node score="1" recordCount="1">
											<True/>
											<ScoreDistribution value="0" recordCount="0"/>
											<ScoreDistribution value="1" recordCount="1"/>
										</Node>
									</Node>
									<Node score="1" recordCount="2">
										<True/>
										<ScoreDistribution value="0" recordCount="0"/>
										<ScoreDistribution value="1" recordCount="2"/>
									</Node>
								</Node>
								<Node>
									<SimplePredicate field="double(x23)" operator="lessOrEqual" value="12.5"/>
									<Node>
										<SimplePredicate field="double(x6)" operator="lessOrEqual" value="2.5"/>
										<Node>
											<SimplePredicate field="double(x15)" operator="lessOrEqual" value="9231.5"/>
											<Node>
												<SimplePredicate field="double(x29)" operator="lessOrEqual" value="1.5"/>
												<Node score="1" recordCount="2">
													<SimplePredicate field="double(x21)" operator="lessOrEqual" value="3.5"/>
													<ScoreDistribution value="0" recordCount="0"/>
													<ScoreDistribution value="1" recordCount="2"/>
												</Node>
												<Node score="0" recordCount="3">
													<True/>
													<ScoreDistribution value="0" recordCount="3"/>
													<ScoreDistribution value="1" recordCount="0"/>
												</Node>
											</Node>
											<Node score="0" recordCount="13">
												<True/>
												<ScoreDistribution value="0" recordCount="13"/>
												<ScoreDistribution value="1" recordCount="0"/>
											</Node>
										</Node>
										<Node score="1" recordCount="2">
											<True/>
											<ScoreDistribution value="0" recordCount="0"/>
											<ScoreDistribution value="1" recordCount="2"/>
										</Node>
									</Node>
									<Node score="0" recordCount="14">
										<True/>
										<ScoreDistribution value="0" recordCount="14"/>
										<ScoreDistribution value="1" recordCount="0"/>
									</Node>
								</Node>
								<Node score="0" recordCount="25">
									<True/>
									<ScoreDistribution value="0" recordCount="25"/>
									<ScoreDistribution value="1" recordCount="0"/>
								</Node>
							</Node>
							<Node>
								<SimplePredicate field="double(x29)" operator="lessOrEqual" value="7.5"/>
								<Node score="0" recordCount="2">
									<SimplePredicate field="double(x9)" operator="lessOrEqual" value="65.5"/>
									<ScoreDistribution value="0" recordCount="2"/>
									<ScoreDistribution value="1" recordCount="0"/>
								</Node>
								<Node score="1" recordCount="1">
									<True/>
									<ScoreDistribution value="0" recordCount="0"/>
									<ScoreDistribution value="1" recordCount="1"/>
								</Node>
							</Node>
							<Node score="1" recordCount="2">
								<True/>
								<ScoreDistribution value="0" recordCount="0"/>
								<ScoreDistribution value="1" recordCount="2"/>
							</Node>
						</Node>
						<Node score="1" recordCount="4">
							<True/>
							<ScoreDistribution value="0" recordCount="0"/>
							<ScoreDistribution value="1" recordCount="4"/>
						</Node>
					</Node>
				</TreeModel>
			</Segment>
			<Segment id="2">
				<True/>
				<TreeModel functionName="classification" missingValueStrategy="nullPrediction">
					<MiningSchema>
						<MiningField name="double(x15)"/>
						<MiningField name="double(x22)"/>
						<MiningField name="double(x23)"/>
						<MiningField name="double(x6)"/>
						<MiningField name="double(x19)"/>
						<MiningField name="double(x30)"/>
						<MiningField name="double(x16)"/>
						<MiningField name="double(x4)"/>
						<MiningField name="double(x27)"/>
						<MiningField name="double(x17)"/>
						<MiningField name="double(x28)"/>
						<MiningField name="double(x24)"/>
						<MiningField name="double(x1)"/>
						<MiningField name="double(x2)"/>
						<MiningField name="double(x12)"/>
						<MiningField name="double(x29)"/>
						<MiningField name="double(x3)"/>
						<MiningField name="double(x14)"/>
						<MiningField name="double(x9)"/>
						<MiningField name="double(x26)"/>
						<MiningField name="double(x18)"/>
						<MiningField name="double(x10)"/>
						<MiningField name="double(x7)"/>
						<MiningField name="double(x11)"/>
						<MiningField name="double(x13)"/>
						<MiningField name="double(x5)"/>
						<MiningField name="double(x25)"/>
						<MiningField name="double(x8)"/>
					</MiningSchema>
					<Node>
						<True/>
						<Node>
							<SimplePredicate field="double(x11)" operator="lessOrEqual" value="1.5"/>
							<Node>
								<SimplePredicate field="double(x14)" operator="lessOrEqual" value="1.5"/>
								<Node>
									<SimplePredicate field="double(x22)" operator="lessOrEqual" value="0.5"/>
									<Node>
										<SimplePredicate field="double(x19)" operator="lessOrEqual" value="12.5"/>
										<Node score="1" recordCount="9">
											<SimplePredicate field="double(x24)" operator="lessOrEqual" value="4.5"/>
											<ScoreDistribution value="0" recordCount="0"/>
											<ScoreDistribution value="1" recordCount="9"/>
										</Node>
										<Node score="0" recordCount="2">
											<True/>
											<ScoreDistribution value="0" recordCount="2"/>
											<ScoreDistribution value="1" recordCount="0"/>
										</Node>
									</Node>
									<Node score="0" recordCount="7">
										<SimplePredicate field="double(x28)" operator="lessOrEqual" value="0.5"/>
										<ScoreDistribution value="0" recordCount="7"/>
										<ScoreDistribution value="1" recordCount="0"/>
									</Node>
									<Node>
										<SimplePredicate field="double(x2)" operator="lessOrEqual" value="974.0"/>
										<Node>
											<SimplePredicate field="double(x5)" operator="lessOrEqual" value="4.5"/>
											<Node>
												<SimplePredicate field="double(x2)" operator="lessOrEqual" value="563.0"/>
												<Node score="0" recordCount="3">
													<SimplePredicate field="double(x17)" operator="lessOrEqual" value="6.5"/>
													<ScoreDistribution value="0" recordCount="3"/>
													<ScoreDistribution value="1" recordCount="0"/>
												</Node>
												<Node score="1" recordCount="1">
													<True/>
													<ScoreDistribution value="0" recordCount="0"/>
													<ScoreDistribution value="1" recordCount="1"/>
												</Node>
											</Node>
											<Node score="0" recordCount="7">
												<True/>
												<ScoreDistribution value="0" recordCount="7"/>
												<ScoreDistribution value="1" recordCount="0"/>
											</Node>
										</Node>
										<Node score="1" recordCount="4">
											<True/>
											<ScoreDistribution value="0" recordCount="0"/>
											<ScoreDistribution value="1" recordCount="4"/>
										</Node>
									</Node>
									<Node score="1" recordCount="5">
										<True/>
										<ScoreDistribution value="0" recordCount="0"/>
										<ScoreDistribution value="1" recordCount="5"/>
									</Node>
								</Node>
								<Node>
									<SimplePredicate field="double(x18)" operator="lessOrEqual" value="0.5"/>
									<Node>
										<SimplePredicate field="double(x23)" operator="lessOrEqual" value="5.5"/>
										<Node score="0" recordCount="26">
											<SimplePredicate field="double(x6)" operator="lessOrEqual" value="1.5"/>
											<ScoreDistribution value="0" recordCount="26"/>
											<ScoreDistribution value="1" recordCount="0"/>
										</Node>
										<Node>
											<SimplePredicate field="double(x2)" operator="lessOrEqual" value="1443.5"/>
											<Node score="0" recordCount="15">
												<SimplePredicate field="double(x13)" operator="lessOrEqual" value="2.5"/>
												<ScoreDistribution value="0" recordCount="15"/>
												<ScoreDistribution value="1" recordCount="0"/>
											</Node>
											<Node score="1" recordCount="3">
												<SimplePredicate field="double(x2)" operator="lessOrEqual" value="1065.0"/>
												<ScoreDistribution value="0" recordCount="0"/>
												<ScoreDistribution value="1" recordCount="3"/>
											</Node>
											<Node score="0" recordCount="3">
												<True/>
												<ScoreDistribution value="0" recordCount="3"/>
												<ScoreDistribution value="1" recordCount="0"/>
											</Node>
										</Node>
										<Node score="1" recordCount="1">
											<True/>
											<ScoreDistribution value="0" recordCount="0"/>
											<ScoreDistribution value="1" recordCount="1"/>
										</Node>
									</Node>
									<Node score="0" recordCount="61">
										<True/>
										<ScoreDistribution value="0" recordCount="61"/>
										<ScoreDistribution value="1" recordCount="0"/>
									</Node>
								</Node>
								<Node>
									<SimplePredicate field="double(x9)" operator="lessOrEqual" value="45.5"/>
									<Node score="1" recordCount="6">
										<SimplePredicate field="double(x28)" operator="lessOrEqual" value="4.0"/>
										<ScoreDistribution value="0" recordCount="0"/>
										<ScoreDistribution value="1" recordCount="6"/>
									</Node>
									<Node score="1" recordCount="1">
										<SimplePredicate field="double(x12)" operator="lessOrEqual" value="4.0"/>
										<ScoreDistribution value="0" recordCount="0"/>
										<ScoreDistribution value="1" recordCount="1"/>
									</Node>
									<Node score="0" recordCount="2">
										<True/>
										<ScoreDistribution value="0" recordCount="2"/>
										<ScoreDistribution value="1" recordCount="0"/>
									</Node>
								</Node>
								<Node>
									<SimplePredicate field="double(x24)" operator="lessOrEqual" value="2.5"/>
									<Node>
										<SimplePredicate field="double(x2)" operator="lessOrEqual" value="877.5"/>
										<Node>
											<SimplePredicate field="double(x30)" operator="lessOrEqual" value="37.0"/>
											<Node score="0" recordCount="1">
												<SimplePredicate field="double(x5)" operator="lessOrEqual" value="2.0"/>
												<ScoreDistribution value="0" recordCount="1"/>
												<ScoreDistribution value="1" recordCount="0"/>
											</Node>
											<Node score="1" recordCount="6">
												<True/>
												<ScoreDistribution value="0" recordCount="0"/>
												<ScoreDistribution value="1" recordCount="6"/>
											</Node>
										</Node>
										<Node score="0" recordCount="1">
											<True/>
											<ScoreDistribution value="0" recordCount="1"/>
											<ScoreDistribution value="1" recordCount="0"/>
										</Node>
									</Node>
									<Node score="0" recordCount="6">
										<True/>
										<ScoreDistribution value="0" recordCount="6"/>
										<ScoreDistribution value="1" recordCount="0"/>
									</Node>
								</Node>
								<Node score="1" recordCount="1">
									<SimplePredicate field="double(x2)" operator="lessOrEqual" value="148.5"/>
									<ScoreDistribution value="0" recordCount="0"/>
									<ScoreDistribution value="1" recordCount="1"/>
								</Node>
								<Node>
									<SimplePredicate field="double(x30)" operator="lessOrEqual" value="30.0"/>
									<Node score="1" recordCount="1">
										<SimplePredicate field="double(x2)" operator="lessOrEqual" value="516.0"/>
										<ScoreDistribution value="0" recordCount="0"/>
										<ScoreDistribution value="1" recordCount="1"/>
									</Node>
									<Node score="0" recordCount="1">
										<True/>
										<ScoreDistribution value="0" recordCount="1"/>
										<ScoreDistribution value="1" recordCount="0"/>
									</Node>
								</Node>
								<Node score="0" recordCount="21">
									<True/>
									<ScoreDistribution value="0" recordCount="21"/>
									<ScoreDistribution value="1" recordCount="0"/>
								</Node>
							</Node>
							<Node>
								<SimplePredicate field="double(x18)" operator="lessOrEqual" value="0.5"/>
								<Node>
									<SimplePredicate field="double(x28)" operator="lessOrEqual" value="0.5"/>
									<Node>
										<SimplePredicate field="double(x23)" operator="lessOrEqual" value="5.5"/>
										<Node score="1" recordCount="3">
											<SimplePredicate field="double(x13)" operator="lessOrEqual" value="2.5"/>
											<ScoreDistribution value="0" recordCount="0"/>
											<ScoreDistribution value="1" recordCount="3"/>
										</Node>
										<Node>
											<SimplePredicate field="double(x15)" operator="lessOrEqual" value="2305.5"/>
											<Node score="1" recordCount="5">
												<SimplePredicate field="double(x9)" operator="lessOrEqual" value="88.0"/>
												<ScoreDistribution value="0" recordCount="0"/>
												<ScoreDistribution value="1" recordCount="5"/>
											</Node>
											<Node score="0" recordCount="2">
												<True/>
												<ScoreDistribution value="0" recordCount="2"/>
												<ScoreDistribution value="1" recordCount="0"/>
											</Node>
										</Node>
										<Node score="0" recordCount="6">
											<SimplePredicate field="double(x17)" operator="lessOrEqual" value="4.0"/>
											<ScoreDistribution value="0" recordCount="6"/>
											<ScoreDistribution value="1" recordCount="0"/>
										</Node>
										<Node score="1" recordCount="1">
											<True/>
											<ScoreDistribution value="0" recordCount="0"/>
											<ScoreDistribution value="1" recordCount="1"/>
										</Node>
									</Node>
									<Node score="0" recordCount="1">
										<SimplePredicate field="double(x5)" operator="lessOrEqual" value="2.5"/>
										<ScoreDistribution value="0" recordCount="1"/>
										<ScoreDistribution value="1" recordCount="0"/>
									</Node>
									<Node score="1" recordCount="7">
										<True/>
										<ScoreDistribution value="0" recordCount="0"/>
										<ScoreDistribution value="1" recordCount="7"/>
									</Node>
								</Node>
								<Node>
									<SimplePredicate field="double(x13)" operator="lessOrEqual" value="1.5"/>
									<Node score="0" recordCount="1">
										<SimplePredicate field="double(x5)" operator="lessOrEqual" value="2.5"/>
										<ScoreDistribution value="0" recordCount="1"/>
										<ScoreDistribution value="1" recordCount="0"/>
									</Node>
									<Node score="1" recordCount="3">
										<True/>
										<ScoreDistribution value="0" recordCount="0"/>
										<ScoreDistribution value="1" recordCount="3"/>
									</Node>
								</Node>
								<Node>
									<SimplePredicate field="double(x30)" operator="lessOrEqual" value="29.5"/>
									<Node score="1" recordCount="6">
										<SimplePredicate field="double(x25)" operator="lessOrEqual" value="2.5"/>
										<ScoreDistribution value="0" recordCount="0"/>
										<ScoreDistribution value="1" recordCount="6"/>
									</Node>
									<Node score="0" recordCount="4">
										<True/>
										<ScoreDistribution value="0" recordCount="4"/>
										<ScoreDistribution value="1" recordCount="0"/>
									</Node>
								</Node>
								<Node score="0" recordCount="30">
									<True/>
									<ScoreDistribution value="0" recordCount="30"/>
									<ScoreDistribution value="1" recordCount="0"/>
								</Node>
							</Node>
							<Node>
								<SimplePredicate field="double(x30)" operator="lessOrEqual" value="24.5"/>
								<Node score="0" recordCount="3">
									<SimplePredicate field="double(x16)" operator="lessOrEqual" value="26073.0"/>
									<ScoreDistribution value="0" recordCount="3"/>
									<ScoreDistribution value="1" recordCount="0"/>
								</Node>
								<Node score="1" recordCount="2">
									<True/>
									<ScoreDistribution value="0" recordCount="0"/>
									<ScoreDistribution value="1" recordCount="2"/>
								</Node>
							</Node>
							<Node score="1" recordCount="21">
								<True/>
								<ScoreDistribution value="0" recordCount="0"/>
								<ScoreDistribution value="1" recordCount="21"/>
							</Node>
						</Node>
						<Node>
							<SimplePredicate field="double(x16)" operator="lessOrEqual" value="22563.0"/>
							<Node>
								<SimplePredicate field="double(x9)" operator="lessOrEqual" value="99.5"/>
								<Node>
									<SimplePredicate field="double(x26)" operator="lessOrEqual" value="37.0"/>
									<Node>
										<SimplePredicate field="double(x14)" operator="lessOrEqual" value="1.5"/>
										<Node>
											<SimplePredicate field="double(x24)" operator="lessOrEqual" value="5.5"/>
											<Node>
												<SimplePredicate field="double(x2)" operator="lessOrEqual" value="627.5"/>
												<Node>
													<SimplePredicate field="double(x23)" operator="lessOrEqual" value="4.5"/>
													<Node score="0" recordCount="2">
														<SimplePredicate field="double(x13)" operator="lessOrEqual" value="2.5"/>
														<ScoreDistribution value="0" recordCount="2"/>
														<ScoreDistribution value="1" recordCount="0"/>
													</Node>
													<Node score="1" recordCount="1">
														<True/>
														<ScoreDistribution value="0" recordCount="0"/>
														<ScoreDistribution value="1" recordCount="1"/>
													</Node>
												</Node>
												<Node>
													<SimplePredicate field="double(x5)" operator="lessOrEqual" value="3.5"/>
													<Node score="0" recordCount="46">
														<SimplePredicate field="double(x29)" operator="lessOrEqual" value="9.5"/>
														<ScoreDistribution value="0" recordCount="46"/>
														<ScoreDistribution value="1" recordCount="0"/>
													</Node>
													<Node score="0" recordCount="16">
														<SimplePredicate field="double(x4)" operator="lessOrEqual" value="21.0"/>
														<ScoreDistribution value="0" recordCount="16"/>
														<ScoreDistribution value="1" recordCount="0"/>
													</Node>
													<Node score="0" recordCount="1">
														<SimplePredicate field="double(x12)" operator="lessOrEqual" value="5.0"/>
														<ScoreDistribution value="0" recordCount="1"/>
														<ScoreDistribution value="1" recordCount="0"/>
													</Node>
													<Node score="1" recordCount="1">
														<True/>
														<ScoreDistribution value="0" recordCount="0"/>
														<ScoreDistribution value="1" recordCount="1"/>
													</Node>
												</Node>
												<Node>
													<SimplePredicate field="double(x7)" operator="lessOrEqual" value="2.5"/>
													<Node>
														<SimplePredicate field="double(x22)" operator="lessOrEqual" value="0.5"/>
														<Node score="0" recordCount="1">
															<SimplePredicate field="double(x13)" operator="lessOrEqual" value="2.5"/>
															<ScoreDistribution value="0" recordCount="1"/>
															<ScoreDistribution value="1" recordCount="0"/>
														</Node>
														<Node score="1" recordCount="2">
															<True/>
															<ScoreDistribution value="0" recordCount="0"/>
															<ScoreDistribution value="1" recordCount="2"/>
														</Node>
													</Node>
													<Node score="0" recordCount="3">
														<True/>
														<ScoreDistribution value="0" recordCount="3"/>
														<ScoreDistribution value="1" recordCount="0"/>
													</Node>
												</Node>
												<Node score="0" recordCount="18">
													<True/>
													<ScoreDistribution value="0" recordCount="18"/>
													<ScoreDistribution value="1" recordCount="0"/>
												</Node>
											</Node>
											<Node>
												<SimplePredicate field="double(x29)" operator="lessOrEqual" value="0.5"/>
												<Node score="0" recordCount="24">
													<SimplePredicate field="double(x19)" operator="lessOrEqual" value="17.5"/>
													<ScoreDistribution value="0" recordCount="24"/>
													<ScoreDistribution value="1" recordCount="0"/>
												</Node>
												<Node score="0" recordCount="2">
													<SimplePredicate field="double(x17)" operator="lessOrEqual" value="3.5"/>
													<ScoreDistribution value="0" recordCount="2"/>
													<ScoreDistribution value="1" recordCount="0"/>
												</Node>
												<Node score="1" recordCount="1">
													<True/>
													<ScoreDistribution value="0" recordCount="0"/>
													<ScoreDistribution value="1" recordCount="1"/>
												</Node>
											</Node>
											<Node score="0" recordCount="153">
												<True/>
												<ScoreDistribution value="0" recordCount="153"/>
												<ScoreDistribution value="1" recordCount="0"/>
											</Node>
										</Node>
										<Node score="1" recordCount="1">
											<SimplePredicate field="double(x27)" operator="lessOrEqual" value="1.0"/>
											<ScoreDistribution value="0" recordCount="0"/>
											<ScoreDistribution value="1" recordCount="1"/>
										</Node>
										<Node score="1" recordCount="1">
											<SimplePredicate field="double(x9)" operator="lessOrEqual" value="53.0"/>
											<ScoreDistribution value="0" recordCount="0"/>
											<ScoreDistribution value="1" recordCount="1"/>
										</Node>
										<Node score="0" recordCount="9">
											<True/>
											<ScoreDistribution value="0" recordCount="9"/>
											<ScoreDistribution value="1" recordCount="0"/>
										</Node>
									</Node>
									<Node>
										<SimplePredicate field="double(x17)" operator="lessOrEqual" value="7.5"/>
										<Node>
											<SimplePredicate field="double(x28)" operator="lessOrEqual" value="12.0"/>
											<Node>
												<SimplePredicate field="double(x23)" operator="lessOrEqual" value="6.5"/>
												<Node>
													<SimplePredicate field="double(x17)" operator="lessOrEqual" value="2.5"/>
													<Node>
														<SimplePredicate field="double(x13)" operator="lessOrEqual" value="2.0"/>
														<Node score="0" recordCount="1">
															<SimplePredicate field="double(x4)" operator="lessOrEqual" value="5.5"/>
															<ScoreDistribution value="0" recordCount="1"/>
															<ScoreDistribution value="1" recordCount="0"/>
														</Node>
														<Node score="1" recordCount="1">
															<True/>
															<ScoreDistribution value="0" recordCount="0"/>
															<ScoreDistribution value="1" recordCount="1"/>
														</Node>
													</Node>
													<Node score="0" recordCount="9">
														<True/>
														<ScoreDistribution value="0" recordCount="9"/>
														<ScoreDistribution value="1" recordCount="0"/>
													</Node>
												</Node>
												<Node score="1" recordCount="3">
													<True/>
													<ScoreDistribution value="0" recordCount="0"/>
													<ScoreDistribution value="1" recordCount="3"/>
												</Node>
											</Node>
											<Node>
												<SimplePredicate field="double(x10)" operator="lessOrEqual" value="3.5"/>
												<Node>
													<SimplePredicate field="double(x15)" operator="lessOrEqual" value="18544.5"/>
													<Node>
														<SimplePredicate field="double(x23)" operator="lessOrEqual" value="9.5"/>
														<Node score="0" recordCount="14">
															<SimplePredicate field="double(x6)" operator="lessOrEqual" value="4.5"/>
															<ScoreDistribution value="0" recordCount="14"/>
															<ScoreDistribution value="1" recordCount="0"/>
														</Node>
														<Node score="1" recordCount="1">
															<SimplePredicate field="double(x17)" operator="lessOrEqual" value="2.0"/>
															<ScoreDistribution value="0" recordCount="0"/>
															<ScoreDistribution value="1" recordCount="1"/>
														</Node>
														<Node score="0" recordCount="2">
															<True/>
															<ScoreDistribution value="0" recordCount="2"/>
															<ScoreDistribution value="1" recordCount="0"/>
														</Node>
													</Node>
													<Node score="0" recordCount="55">
														<True/>
														<ScoreDistribution value="0" recordCount="55"/>
														<ScoreDistribution value="1" recordCount="0"/>
													</Node>
												</Node>
												<Node score="0" recordCount="2">
													<SimplePredicate field="double(x26)" operator="lessOrEqual" value="22.0"/>
													<ScoreDistribution value="0" recordCount="2"/>
													<ScoreDistribution value="1" recordCount="0"/>
												</Node>
												<Node score="1" recordCount="1">
													<True/>
													<ScoreDistribution value="0" recordCount="0"/>
													<ScoreDistribution value="1" recordCount="1"/>
												</Node>
											</Node>
											<Node score="0" recordCount="5">
												<SimplePredicate field="double(x30)" operator="lessOrEqual" value="54.0"/>
												<ScoreDistribution value="0" recordCount="5"/>
												<ScoreDistribution value="1" recordCount="0"/>
											</Node>
											<Node score="1" recordCount="3">
												<True/>
												<ScoreDistribution value="0" recordCount="0"/>
												<ScoreDistribution value="1" recordCount="3"/>
											</Node>
										</Node>
										<Node score="0" recordCount="1">
											<SimplePredicate field="double(x23)" operator="lessOrEqual" value="21.0"/>
											<ScoreDistribution value="0" recordCount="1"/>
											<ScoreDistribution value="1" recordCount="0"/>
										</Node>
										<Node score="1" recordCount="2">
											<True/>
											<ScoreDistribution value="0" recordCount="0"/>
											<ScoreDistribution value="1" recordCount="2"/>
										</Node>
									</Node>
									<Node>
										<SimplePredicate field="double(x16)" operator="lessOrEqual" value="16316.5"/>
										<Node score="0" recordCount="7">
											<SimplePredicate field="double(x9)" operator="lessOrEqual" value="84.5"/>
											<ScoreDistribution value="0" recordCount="7"/>
											<ScoreDistribution value="1" recordCount="0"/>
										</Node>
										<Node score="1" recordCount="1">
											<True/>
											<ScoreDistribution value="0" recordCount="0"/>
											<ScoreDistribution value="1" recordCount="1"/>
										</Node>
									</Node>
									<Node score="1" recordCount="6">
										<True/>
										<ScoreDistribution value="0" recordCount="0"/>
										<ScoreDistribution value="1" recordCount="6"/>
									</Node>
								</Node>
								<Node score="1" recordCount="1">
									<True/>
									<ScoreDistribution value="0" recordCount="0"/>
									<ScoreDistribution value="1" recordCount="1"/>
								</Node>
							</Node>
							<Node>
								<SimplePredicate field="double(x11)" operator="lessOrEqual" value="2.5"/>
								<Node score="1" recordCount="1">
									<SimplePredicate field="double(x7)" operator="lessOrEqual" value="2.0"/>
									<ScoreDistribution value="0" recordCount="0"/>
									<ScoreDistribution value="1" recordCount="1"/>
								</Node>
								<Node score="0" recordCount="2">
									<True/>
									<ScoreDistribution value="0" recordCount="2"/>
									<ScoreDistribution value="1" recordCount="0"/>
								</Node>
							</Node>
							<Node score="1" recordCount="2">
								<True/>
								<ScoreDistribution value="0" recordCount="0"/>
								<ScoreDistribution value="1" recordCount="2"/>
							</Node>
						</Node>
						<Node>
							<SimplePredicate field="double(x22)" operator="lessOrEqual" value="0.5"/>
							<Node score="1" recordCount="3">
								<SimplePredicate field="double(x30)" operator="lessOrEqual" value="24.5"/>
								<ScoreDistribution value="0" recordCount="0"/>
								<ScoreDistribution value="1" recordCount="3"/>
							</Node>
							<Node>
								<SimplePredicate field="double(x15)" operator="lessOrEqual" value="5862.0"/>
								<Node>
									<SimplePredicate field="double(x6)" operator="lessOrEqual" value="2.5"/>
									<Node score="0" recordCount="1">
										<SimplePredicate field="double(x15)" operator="lessOrEqual" value="4032.0"/>
										<ScoreDistribution value="0" recordCount="1"/>
										<ScoreDistribution value="1" recordCount="0"/>
									</Node>
									<Node score="1" recordCount="7">
										<True/>
										<ScoreDistribution value="0" recordCount="0"/>
										<ScoreDistribution value="1" recordCount="7"/>
									</Node>
								</Node>
								<Node score="0" recordCount="4">
									<True/>
									<ScoreDistribution value="0" recordCount="4"/>
									<ScoreDistribution value="1" recordCount="0"/>
								</Node>
							</Node>
							<Node score="1" recordCount="3">
								<SimplePredicate field="double(x10)" operator="lessOrEqual" value="1.5"/>
								<ScoreDistribution value="0" recordCount="0"/>
								<ScoreDistribution value="1" recordCount="3"/>
							</Node>
							<Node>
								<SimplePredicate field="double(x8)" operator="lessOrEqual" value="0.5"/>
								<Node>
									<SimplePredicate field="double(x10)" operator="lessOrEqual" value="2.5"/>
									<Node score="1" recordCount="1">
										<SimplePredicate field="double(x29)" operator="lessOrEqual" value="4.0"/>
										<ScoreDistribution value="0" recordCount="0"/>
										<ScoreDistribution value="1" recordCount="1"/>
									</Node>
									<Node score="0" recordCount="3">
										<True/>
										<ScoreDistribution value="0" recordCount="3"/>
										<ScoreDistribution value="1" recordCount="0"/>
									</Node>
								</Node>
								<Node score="0" recordCount="14">
									<True/>
									<ScoreDistribution value="0" recordCount="14"/>
									<ScoreDistribution value="1" recordCount="0"/>
								</Node>
							</Node>
							<Node score="1" recordCount="4">
								<SimplePredicate field="double(x19)" operator="lessOrEqual" value="12.5"/>
								<ScoreDistribution value="0" recordCount="0"/>
								<ScoreDistribution value="1" recordCount="4"/>
							</Node>
							<Node score="0" recordCount="6">
								<True/>
								<ScoreDistribution value="0" recordCount="6"/>
								<ScoreDistribution value="1" recordCount="0"/>
							</Node>
						</Node>
						<Node score="1" recordCount="4">
							<SimplePredicate field="double(x16)" operator="lessOrEqual" value="22609.0"/>
							<ScoreDistribution value="0" recordCount="0"/>
							<ScoreDistribution value="1" recordCount="4"/>
						</Node>
						<Node>
							<SimplePredicate field="double(x26)" operator="lessOrEqual" value="9.5"/>
							<Node score="0" recordCount="32">
								<SimplePredicate field="double(x19)" operator="lessOrEqual" value="17.0"/>
								<ScoreDistribution value="0" recordCount="32"/>
								<ScoreDistribution value="1" recordCount="0"/>
							</Node>
							<Node score="1" recordCount="1">
								<SimplePredicate field="double(x1)" operator="lessOrEqual" value="1.5"/>
								<ScoreDistribution value="0" recordCount="0"/>
								<ScoreDistribution value="1" recordCount="1"/>
							</Node>
							<Node score="0" recordCount="5">
								<True/>
								<ScoreDistribution value="0" recordCount="5"/>
								<ScoreDistribution value="1" recordCount="0"/>
							</Node>
						</Node>
						<Node>
							<SimplePredicate field="double(x12)" operator="lessOrEqual" value="4.0"/>
							<Node score="1" recordCount="2">
								<SimplePredicate field="double(x26)" operator="lessOrEqual" value="14.5"/>
								<ScoreDistribution value="0" recordCount="0"/>
								<ScoreDistribution value="1" recordCount="2"/>
							</Node>
							<Node score="0" recordCount="1">
								<SimplePredicate field="double(x3)" operator="lessOrEqual" value="1.5"/>
								<ScoreDistribution value="0" recordCount="1"/>
								<ScoreDistribution value="1" recordCount="0"/>
							</Node>
							<Node score="1" recordCount="2">
								<True/>
								<ScoreDistribution value="0" recordCount="0"/>
								<ScoreDistribution value="1" recordCount="2"/>
							</Node>
						</Node>
						<Node score="0" recordCount="7">
							<SimplePredicate field="double(x19)" operator="lessOrEqual" value="20.5"/>
							<ScoreDistribution value="0" recordCount="7"/>
							<ScoreDistribution value="1" recordCount="0"/>
						</Node>
						<Node score="1" recordCount="2">
							<True/>
							<ScoreDistribution value="0" recordCount="0"/>
							<ScoreDistribution value="1" recordCount="2"/>
						</Node>
					</Node>
				</TreeModel>
			</Segment>
			<Segment id="3">
				<True/>
				<TreeModel functionName="classification" missingValueStrategy="nullPrediction">
					<MiningSchema>
						<MiningField name="double(x15)"/>
						<MiningField name="double(x22)"/>
						<MiningField name="double(x23)"/>
						<MiningField name="double(x6)"/>
						<MiningField name="double(x19)"/>
						<MiningField name="double(x30)"/>
						<MiningField name="double(x16)"/>
						<MiningField name="double(x4)"/>
						<MiningField name="double(x27)"/>
						<MiningField name="double(x17)"/>
						<MiningField name="double(x24)"/>
						<MiningField name="double(x1)"/>
						<MiningField name="double(x2)"/>
						<MiningField name="double(x12)"/>
						<MiningField name="double(x29)"/>
						<MiningField name="double(x3)"/>
						<MiningField name="double(x14)"/>
						<MiningField name="double(x9)"/>
						<MiningField name="double(x21)"/>
						<MiningField name="double(x26)"/>
						<MiningField name="double(x18)"/>
						<MiningField name="double(x10)"/>
						<MiningField name="double(x7)"/>
						<MiningField name="double(x11)"/>
						<MiningField name="double(x13)"/>
						<MiningField name="double(x25)"/>
						<MiningField name="double(x8)"/>
					</MiningSchema>
					<Node>
						<True/>
						<Node>
							<SimplePredicate field="double(x30)" operator="lessOrEqual" value="22.5"/>
							<Node>
								<SimplePredicate field="double(x2)" operator="lessOrEqual" value="1218.5"/>
								<Node>
									<SimplePredicate field="double(x10)" operator="lessOrEqual" value="2.5"/>
									<Node>
										<SimplePredicate field="double(x19)" operator="lessOrEqual" value="14.0"/>
										<Node score="1" recordCount="3">
											<SimplePredicate field="double(x2)" operator="lessOrEqual" value="780.5"/>
											<ScoreDistribution value="0" recordCount="0"/>
											<ScoreDistribution value="1" recordCount="3"/>
										</Node>
										<Node score="0" recordCount="3">
											<True/>
											<ScoreDistribution value="0" recordCount="3"/>
											<ScoreDistribution value="1" recordCount="0"/>
										</Node>
									</Node>
									<Node score="1" recordCount="6">
										<True/>
										<ScoreDistribution value="0" recordCount="0"/>
										<ScoreDistribution value="1" recordCount="6"/>
									</Node>
								</Node>
								<Node score="1" recordCount="7">
									<SimplePredicate field="double(x2)" operator="lessOrEqual" value="250.0"/>
									<ScoreDistribution value="0" recordCount="0"/>
									<ScoreDistribution value="1" recordCount="7"/>
								</Node>
								<Node score="0" recordCount="13">
									<True/>
									<ScoreDistribution value="0" recordCount="13"/>
									<ScoreDistribution value="1" recordCount="0"/>
								</Node>
							</Node>
							<Node score="1" recordCount="13">
								<True/>
								<ScoreDistribution value="0" recordCount="0"/>
								<ScoreDistribution value="1" recordCount="13"/>
							</Node>
						</Node>
						<Node>
							<SimplePredicate field="double(x23)" operator="lessOrEqual" value="3.5"/>
							<Node>
								<SimplePredicate field="double(x10)" operator="lessOrEqual" value="2.5"/>
								<Node>
									<SimplePredicate field="double(x27)" operator="lessOrEqual" value="0.5"/>
									<Node score="0" recordCount="4">
										<SimplePredicate field="double(x1)" operator="lessOrEqual" value="0.5"/>
										<ScoreDistribution value="0" recordCount="4"/>
										<ScoreDistribution value="1" recordCount="0"/>
									</Node>
									<Node score="0" recordCount="1">
										<SimplePredicate field="double(x16)" operator="lessOrEqual" value="6421.0"/>
										<ScoreDistribution value="0" recordCount="1"/>
										<ScoreDistribution value="1" recordCount="0"/>
									</Node>
									<Node score="1" recordCount="16">
										<SimplePredicate field="double(x6)" operator="lessOrEqual" value="3.5"/>
										<ScoreDistribution value="0" recordCount="0"/>
										<ScoreDistribution value="1" recordCount="16"/>
									</Node>
									<Node score="0" recordCount="1">
										<SimplePredicate field="double(x6)" operator="lessOrEqual" value="4.5"/>
										<ScoreDistribution value="0" recordCount="1"/>
										<ScoreDistribution value="1" recordCount="0"/>
									</Node>
									<Node score="1" recordCount="1">
										<True/>
										<ScoreDistribution value="0" recordCount="0"/>
										<ScoreDistribution value="1" recordCount="1"/>
									</Node>
								</Node>
								<Node score="1" recordCount="1">
									<SimplePredicate field="double(x29)" operator="lessOrEqual" value="0.5"/>
									<ScoreDistribution value="0" recordCount="0"/>
									<ScoreDistribution value="1" recordCount="1"/>
								</Node>
								<Node score="0" recordCount="7">
									<SimplePredicate field="double(x26)" operator="lessOrEqual" value="2.5"/>
									<ScoreDistribution value="0" recordCount="7"/>
									<ScoreDistribution value="1" recordCount="0"/>
								</Node>
								<Node score="1" recordCount="1">
									<True/>
									<ScoreDistribution value="0" recordCount="0"/>
									<ScoreDistribution value="1" recordCount="1"/>
								</Node>
							</Node>
							<Node>
								<SimplePredicate field="double(x6)" operator="lessOrEqual" value="4.0"/>
								<Node>
									<SimplePredicate field="double(x16)" operator="lessOrEqual" value="21335.0"/>
									<Node>
										<SimplePredicate field="double(x21)" operator="lessOrEqual" value="1.5"/>
										<Node score="1" recordCount="1">
											<SimplePredicate field="double(x9)" operator="lessOrEqual" value="75.5"/>
											<ScoreDistribution value="0" recordCount="0"/>
											<ScoreDistribution value="1" recordCount="1"/>
										</Node>
										<Node score="0" recordCount="3">
											<True/>
											<ScoreDistribution value="0" recordCount="3"/>
											<ScoreDistribution value="1" recordCount="0"/>
										</Node>
									</Node>
									<Node score="0" recordCount="19">
										<True/>
										<ScoreDistribution value="0" recordCount="19"/>
										<ScoreDistribution value="1" recordCount="0"/>
									</Node>
								</Node>
								<Node score="1" recordCount="1">
									<SimplePredicate field="double(x9)" operator="lessOrEqual" value="83.5"/>
									<ScoreDistribution value="0" recordCount="0"/>
									<ScoreDistribution value="1" recordCount="1"/>
								</Node>
								<Node score="0" recordCount="2">
									<True/>
									<ScoreDistribution value="0" recordCount="2"/>
									<ScoreDistribution value="1" recordCount="0"/>
								</Node>
							</Node>
							<Node score="0" recordCount="3">
								<SimplePredicate field="double(x21)" operator="lessOrEqual" value="2.5"/>
								<ScoreDistribution value="0" recordCount="3"/>
								<ScoreDistribution value="1" recordCount="0"/>
							</Node>
							<Node score="1" recordCount="3">
								<True/>
								<ScoreDistribution value="0" recordCount="0"/>
								<ScoreDistribution value="1" recordCount="3"/>
							</Node>
						</Node>
						<Node>
							<SimplePredicate field="double(x16)" operator="lessOrEqual" value="20288.5"/>
							<Node>
								<SimplePredicate field="double(x11)" operator="lessOrEqual" value="1.5"/>
								<Node>
									<SimplePredicate field="double(x23)" operator="lessOrEqual" value="9.5"/>
									<Node>
										<SimplePredicate field="double(x12)" operator="lessOrEqual" value="7.0"/>
										<Node>
											<SimplePredicate field="double(x15)" operator="lessOrEqual" value="4022.5"/>
											<Node>
												<SimplePredicate field="double(x16)" operator="lessOrEqual" value="10274.5"/>
												<Node score="0" recordCount="50">
													<SimplePredicate field="double(x26)" operator="lessOrEqual" value="6.0"/>
													<ScoreDistribution value="0" recordCount="50"/>
													<ScoreDistribution value="1" recordCount="0"/>
												</Node>
												<Node score="1" recordCount="1">
													<SimplePredicate field="double(x23)" operator="lessOrEqual" value="7.5"/>
													<ScoreDistribution value="0" recordCount="0"/>
													<ScoreDistribution value="1" recordCount="1"/>
												</Node>
												<Node score="0" recordCount="9">
													<True/>
													<ScoreDistribution value="0" recordCount="9"/>
													<ScoreDistribution value="1" recordCount="0"/>
												</Node>
											</Node>
											<Node>
												<SimplePredicate field="double(x14)" operator="lessOrEqual" value="1.5"/>
												<Node>
													<SimplePredicate field="double(x7)" operator="lessOrEqual" value="2.0"/>
													<Node score="1" recordCount="1">
														<SimplePredicate field="double(x26)" operator="lessOrEqual" value="4.0"/>
														<ScoreDistribution value="0" recordCount="0"/>
														<ScoreDistribution value="1" recordCount="1"/>
													</Node>
													<Node score="1" recordCount="1">
														<SimplePredicate field="double(x29)" operator="lessOrEqual" value="2.0"/>
														<ScoreDistribution value="0" recordCount="0"/>
														<ScoreDistribution value="1" recordCount="1"/>
													</Node>
													<Node score="0" recordCount="8">
														<True/>
														<ScoreDistribution value="0" recordCount="8"/>
														<ScoreDistribution value="1" recordCount="0"/>
													</Node>
												</Node>
												<Node score="0" recordCount="24">
													<True/>
													<ScoreDistribution value="0" recordCount="24"/>
													<ScoreDistribution value="1" recordCount="0"/>
												</Node>
											</Node>
											<Node score="0" recordCount="3">
												<SimplePredicate field="double(x4)" operator="lessOrEqual" value="4.0"/>
												<ScoreDistribution value="0" recordCount="3"/>
												<ScoreDistribution value="1" recordCount="0"/>
											</Node>
											<Node>
												<SimplePredicate field="double(x30)" operator="lessOrEqual" value="30.0"/>
												<Node score="0" recordCount="2">
													<SimplePredicate field="double(x15)" operator="lessOrEqual" value="2334.0"/>
													<ScoreDistribution value="0" recordCount="2"/>
													<ScoreDistribution value="1" recordCount="0"/>
												</Node>
												<Node score="1" recordCount="1">
													<True/>
													<ScoreDistribution value="0" recordCount="0"/>
													<ScoreDistribution value="1" recordCount="1"/>
												</Node>
											</Node>
											<Node score="1" recordCount="5">
												<True/>
												<ScoreDistribution value="0" recordCount="0"/>
												<ScoreDistribution value="1" recordCount="5"/>
											</Node>
										</Node>
										<Node score="0" recordCount="7">
											<SimplePredicate field="double(x17)" operator="lessOrEqual" value="4.0"/>
											<ScoreDistribution value="0" recordCount="7"/>
											<ScoreDistribution value="1" recordCount="0"/>
										</Node>
										<Node score="1" recordCount="5">
											<True/>
											<ScoreDistribution value="0" recordCount="0"/>
											<ScoreDistribution value="1" recordCount="5"/>
										</Node>
									</Node>
									<Node score="0" recordCount="3">
										<SimplePredicate field="double(x9)" operator="lessOrEqual" value="62.5"/>
										<ScoreDistribution value="0" recordCount="3"/>
										<ScoreDistribution value="1" recordCount="0"/>
									</Node>
									<Node score="1" recordCount="3">
										<True/>
										<ScoreDistribution value="0" recordCount="0"/>
										<ScoreDistribution value="1" recordCount="3"/>
									</Node>
								</Node>
								<Node>
									<SimplePredicate field="double(x10)" operator="lessOrEqual" value="1.5"/>
									<Node score="1" recordCount="6">
										<SimplePredicate field="double(x29)" operator="lessOrEqual" value="7.5"/>
										<ScoreDistribution value="0" recordCount="0"/>
										<ScoreDistribution value="1" recordCount="6"/>
									</Node>
									<Node score="0" recordCount="2">
										<True/>
										<ScoreDistribution value="0" recordCount="2"/>
										<ScoreDistribution value="1" recordCount="0"/>
									</Node>
								</Node>
								<Node>
									<SimplePredicate field="double(x18)" operator="lessOrEqual" value="0.5"/>
									<Node>
										<SimplePredicate field="double(x17)" operator="lessOrEqual" value="1.5"/>
										<Node score="0" recordCount="7">
											<SimplePredicate field="double(x23)" operator="lessOrEqual" value="17.5"/>
											<ScoreDistribution value="0" recordCount="7"/>
											<ScoreDistribution value="1" recordCount="0"/>
										</Node>
										<Node score="1" recordCount="1">
											<True/>
											<ScoreDistribution value="0" recordCount="0"/>
											<ScoreDistribution value="1" recordCount="1"/>
										</Node>
									</Node>
									<Node score="0" recordCount="9">
										<True/>
										<ScoreDistribution value="0" recordCount="9"/>
										<ScoreDistribution value="1" recordCount="0"/>
									</Node>
								</Node>
								<Node score="0" recordCount="1">
									<SimplePredicate field="double(x17)" operator="lessOrEqual" value="0.5"/>
									<ScoreDistribution value="0" recordCount="1"/>
									<ScoreDistribution value="1" recordCount="0"/>
								</Node>
								<Node score="1" recordCount="7">
									<SimplePredicate field="double(x10)" operator="lessOrEqual" value="3.5"/>
									<ScoreDistribution value="0" recordCount="0"/>
									<ScoreDistribution value="1" recordCount="7"/>
								</Node>
								<Node score="0" recordCount="1">
									<True/>
									<ScoreDistribution value="0" recordCount="1"/>
									<ScoreDistribution value="1" recordCount="0"/>
								</Node>
							</Node>
							<Node>
								<SimplePredicate field="double(x29)" operator="lessOrEqual" value="13.5"/>
								<Node>
									<SimplePredicate field="double(x12)" operator="lessOrEqual" value="6.5"/>
									<Node>
										<SimplePredicate field="double(x9)" operator="lessOrEqual" value="99.5"/>
										<Node>
											<SimplePredicate field="double(x26)" operator="lessOrEqual" value="34.5"/>
											<Node score="0" recordCount="141">
												<SimplePredicate field="double(x21)" operator="lessOrEqual" value="3.5"/>
												<ScoreDistribution value="0" recordCount="141"/>
												<ScoreDistribution value="1" recordCount="0"/>
											</Node>
											<Node>
												<SimplePredicate field="double(x2)" operator="lessOrEqual" value="640.5"/>
												<Node score="0" recordCount="16">
													<SimplePredicate field="double(x17)" operator="lessOrEqual" value="6.5"/>
													<ScoreDistribution value="0" recordCount="16"/>
													<ScoreDistribution value="1" recordCount="0"/>
												</Node>
												<Node>
													<SimplePredicate field="double(x4)" operator="lessOrEqual" value="6.5"/>
													<Node score="1" recordCount="1">
														<SimplePredicate field="double(x27)" operator="lessOrEqual" value="1.0"/>
														<ScoreDistribution value="0" recordCount="0"/>
														<ScoreDistribution value="1" recordCount="1"/>
													</Node>
													<Node score="0" recordCount="3">
														<True/>
														<ScoreDistribution value="0" recordCount="3"/>
														<ScoreDistribution value="1" recordCount="0"/>
													</Node>
												</Node>
												<Node score="1" recordCount="2">
													<True/>
													<ScoreDistribution value="0" recordCount="0"/>
													<ScoreDistribution value="1" recordCount="2"/>
												</Node>
											</Node>
											<Node score="0" recordCount="44">
												<True/>
												<ScoreDistribution value="0" recordCount="44"/>
												<ScoreDistribution value="1" recordCount="0"/>
											</Node>
										</Node>
										<Node score="1" recordCount="1">
											<True/>
											<ScoreDistribution value="0" recordCount="0"/>
											<ScoreDistribution value="1" recordCount="1"/>
										</Node>
									</Node>
									<Node score="1" recordCount="2">
										<True/>
										<ScoreDistribution value="0" recordCount="0"/>
										<ScoreDistribution value="1" recordCount="2"/>
									</Node>
								</Node>
								<Node>
									<SimplePredicate field="double(x23)" operator="lessOrEqual" value="26.0"/>
									<Node>
										<SimplePredicate field="double(x30)" operator="lessOrEqual" value="46.0"/>
										<Node>
											<SimplePredicate field="double(x10)" operator="lessOrEqual" value="2.5"/>
											<Node>
												<SimplePredicate field="double(x19)" operator="lessOrEqual" value="13.5"/>
												<Node score="0" recordCount="4">
													<SimplePredicate field="double(x9)" operator="lessOrEqual" value="44.5"/>
													<ScoreDistribution value="0" recordCount="4"/>
													<ScoreDistribution value="1" recordCount="0"/>
												</Node>
												<Node score="1" recordCount="4">
													<SimplePredicate field="double(x9)" operator="lessOrEqual" value="77.5"/>
													<ScoreDistribution value="0" recordCount="0"/>
													<ScoreDistribution value="1" recordCount="4"/>
												</Node>
												<Node score="0" recordCount="3">
													<True/>
													<ScoreDistribution value="0" recordCount="3"/>
													<ScoreDistribution value="1" recordCount="0"/>
												</Node>
											</Node>
											<Node score="0" recordCount="12">
												<True/>
												<ScoreDistribution value="0" recordCount="12"/>
												<ScoreDistribution value="1" recordCount="0"/>
											</Node>
										</Node>
										<Node score="1" recordCount="1">
											<SimplePredicate field="double(x25)" operator="lessOrEqual" value="1.5"/>
											<ScoreDistribution value="0" recordCount="0"/>
											<ScoreDistribution value="1" recordCount="1"/>
										</Node>
										<Node score="0" recordCount="65">
											<SimplePredicate field="double(x9)" operator="lessOrEqual" value="84.5"/>
											<ScoreDistribution value="0" recordCount="65"/>
											<ScoreDistribution value="1" recordCount="0"/>
										</Node>
										<Node score="0" recordCount="8">
											<SimplePredicate field="double(x29)" operator="lessOrEqual" value="6.5"/>
											<ScoreDistribution value="0" recordCount="8"/>
											<ScoreDistribution value="1" recordCount="0"/>
										</Node>
										<Node score="1" recordCount="1">
											<True/>
											<ScoreDistribution value="0" recordCount="0"/>
											<ScoreDistribution value="1" recordCount="1"/>
										</Node>
									</Node>
									<Node>
										<SimplePredicate field="double(x15)" operator="lessOrEqual" value="8017.5"/>
										<Node>
											<SimplePredicate field="double(x25)" operator="lessOrEqual" value="3.5"/>
											<Node>
												<SimplePredicate field="double(x9)" operator="lessOrEqual" value="82.0"/>
												<Node score="1" recordCount="4">
													<SimplePredicate field="double(x23)" operator="lessOrEqual" value="10.0"/>
													<ScoreDistribution value="0" recordCount="0"/>
													<ScoreDistribution value="1" recordCount="4"/>
												</Node>
												<Node score="0" recordCount="4">
													<True/>
													<ScoreDistribution value="0" recordCount="4"/>
													<ScoreDistribution value="1" recordCount="0"/>
												</Node>
											</Node>
											<Node score="0" recordCount="9">
												<True/>
												<ScoreDistribution value="0" recordCount="9"/>
												<ScoreDistribution value="1" recordCount="0"/>
											</Node>
										</Node>
										<Node score="1" recordCount="2">
											<True/>
											<ScoreDistribution value="0" recordCount="0"/>
											<ScoreDistribution value="1" recordCount="2"/>
										</Node>
									</Node>
									<Node score="0" recordCount="11">
										<True/>
										<ScoreDistribution value="0" recordCount="11"/>
										<ScoreDistribution value="1" recordCount="0"/>
									</Node>
								</Node>
								<Node score="1" recordCount="1">
									<True/>
									<ScoreDistribution value="0" recordCount="0"/>
									<ScoreDistribution value="1" recordCount="1"/>
								</Node>
							</Node>
							<Node score="1" recordCount="4">
								<SimplePredicate field="double(x1)" operator="lessOrEqual" value="1.5"/>
								<ScoreDistribution value="0" recordCount="0"/>
								<ScoreDistribution value="1" recordCount="4"/>
							</Node>
							<Node score="0" recordCount="6">
								<True/>
								<ScoreDistribution value="0" recordCount="6"/>
								<ScoreDistribution value="1" recordCount="0"/>
							</Node>
						</Node>
						<Node>
							<SimplePredicate field="double(x11)" operator="lessOrEqual" value="1.5"/>
							<Node>
								<SimplePredicate field="double(x17)" operator="lessOrEqual" value="4.5"/>
								<Node>
									<SimplePredicate field="double(x19)" operator="lessOrEqual" value="21.5"/>
									<Node>
										<SimplePredicate field="double(x4)" operator="lessOrEqual" value="21.5"/>
										<Node score="0" recordCount="22">
											<SimplePredicate field="double(x26)" operator="lessOrEqual" value="7.5"/>
											<ScoreDistribution value="0" recordCount="22"/>
											<ScoreDistribution value="1" recordCount="0"/>
										</Node>
										<Node score="1" recordCount="1">
											<SimplePredicate field="double(x27)" operator="lessOrEqual" value="5.0"/>
											<ScoreDistribution value="0" recordCount="0"/>
											<ScoreDistribution value="1" recordCount="1"/>
										</Node>
										<Node score="0" recordCount="1">
											<True/>
											<ScoreDistribution value="0" recordCount="1"/>
											<ScoreDistribution value="1" recordCount="0"/>
										</Node>
									</Node>
									<Node score="1" recordCount="2">
										<SimplePredicate field="double(x13)" operator="lessOrEqual" value="2.5"/>
										<ScoreDistribution value="0" recordCount="0"/>
										<ScoreDistribution value="1" recordCount="2"/>
									</Node>
									<Node score="0" recordCount="1">
										<True/>
										<ScoreDistribution value="0" recordCount="1"/>
										<ScoreDistribution value="1" recordCount="0"/>
									</Node>
								</Node>
								<Node score="1" recordCount="3">
									<SimplePredicate field="double(x29)" operator="lessOrEqual" value="4.5"/>
									<ScoreDistribution value="0" recordCount="0"/>
									<ScoreDistribution value="1" recordCount="3"/>
								</Node>
								<Node score="0" recordCount="1">
									<True/>
									<ScoreDistribution value="0" recordCount="1"/>
									<ScoreDistribution value="1" recordCount="0"/>
								</Node>
							</Node>
							<Node score="0" recordCount="3">
								<SimplePredicate field="double(x3)" operator="lessOrEqual" value="0.5"/>
								<ScoreDistribution value="0" recordCount="3"/>
								<ScoreDistribution value="1" recordCount="0"/>
							</Node>
							<Node score="1" recordCount="6">
								<SimplePredicate field="double(x15)" operator="lessOrEqual" value="2866.0"/>
								<ScoreDistribution value="0" recordCount="0"/>
								<ScoreDistribution value="1" recordCount="6"/>
							</Node>
							<Node score="1" recordCount="2">
								<SimplePredicate field="double(x2)" operator="lessOrEqual" value="1194.0"/>
								<ScoreDistribution value="0" recordCount="0"/>
								<ScoreDistribution value="1" recordCount="2"/>
							</Node>
							<Node score="0" recordCount="1">
								<True/>
								<ScoreDistribution value="0" recordCount="1"/>
								<ScoreDistribution value="1" recordCount="0"/>
							</Node>
						</Node>
						<Node>
							<SimplePredicate field="double(x22)" operator="lessOrEqual" value="0.5"/>
							<Node>
								<SimplePredicate field="double(x10)" operator="lessOrEqual" value="1.5"/>
								<Node>
									<SimplePredicate field="double(x27)" operator="lessOrEqual" value="5.5"/>
									<Node score="1" recordCount="1">
										<SimplePredicate field="double(x30)" operator="lessOrEqual" value="28.0"/>
										<ScoreDistribution value="0" recordCount="0"/>
										<ScoreDistribution value="1" recordCount="1"/>
									</Node>
									<Node score="0" recordCount="3">
										<True/>
										<ScoreDistribution value="0" recordCount="3"/>
										<ScoreDistribution value="1" recordCount="0"/>
									</Node>
								</Node>
								<Node score="1" recordCount="4">
									<True/>
									<ScoreDistribution value="0" recordCount="0"/>
									<ScoreDistribution value="1" recordCount="4"/>
								</Node>
							</Node>
							<Node>
								<SimplePredicate field="double(x26)" operator="lessOrEqual" value="4.5"/>
								<Node>
									<SimplePredicate field="double(x2)" operator="lessOrEqual" value="1398.0"/>
									<Node>
										<SimplePredicate field="double(x30)" operator="lessOrEqual" value="34.0"/>
										<Node score="1" recordCount="3">
											<SimplePredicate field="double(x3)" operator="lessOrEqual" value="1.5"/>
											<ScoreDistribution value="0" recordCount="0"/>
											<ScoreDistribution value="1" recordCount="3"/>
										</Node>
										<Node score="0" recordCount="2">
											<SimplePredicate field="double(x17)" operator="lessOrEqual" value="5.5"/>
											<ScoreDistribution value="0" recordCount="2"/>
											<ScoreDistribution value="1" recordCount="0"/>
										</Node>
										<Node score="1" recordCount="1">
											<True/>
											<ScoreDistribution value="0" recordCount="0"/>
											<ScoreDistribution value="1" recordCount="1"/>
										</Node>
									</Node>
									<Node score="0" recordCount="10">
										<True/>
										<ScoreDistribution value="0" recordCount="10"/>
										<ScoreDistribution value="1" recordCount="0"/>
									</Node>
								</Node>
								<Node score="1" recordCount="4">
									<True/>
									<ScoreDistribution value="0" recordCount="0"/>
									<ScoreDistribution value="1" recordCount="4"/>
								</Node>
							</Node>
							<Node>
								<SimplePredicate field="double(x4)" operator="lessOrEqual" value="5.5"/>
								<Node>
									<SimplePredicate field="double(x2)" operator="lessOrEqual" value="471.0"/>
									<Node score="0" recordCount="1">
										<SimplePredicate field="double(x8)" operator="lessOrEqual" value="0.5"/>
										<ScoreDistribution value="0" recordCount="1"/>
										<ScoreDistribution value="1" recordCount="0"/>
									</Node>
									<Node score="1" recordCount="3">
										<True/>
										<ScoreDistribution value="0" recordCount="0"/>
										<ScoreDistribution value="1" recordCount="3"/>
									</Node>
								</Node>
								<Node score="0" recordCount="17">
									<True/>
									<ScoreDistribution value="0" recordCount="17"/>
									<ScoreDistribution value="1" recordCount="0"/>
								</Node>
							</Node>
							<Node score="0" recordCount="16">
								<True/>
								<ScoreDistribution value="0" recordCount="16"/>
								<ScoreDistribution value="1" recordCount="0"/>
							</Node>
						</Node>
						<Node score="1" recordCount="1">
							<SimplePredicate field="double(x2)" operator="lessOrEqual" value="122.5"/>
							<ScoreDistribution value="0" recordCount="0"/>
							<ScoreDistribution value="1" recordCount="1"/>
						</Node>
						<Node score="0" recordCount="31">
							<SimplePredicate field="double(x8)" operator="lessOrEqual" value="0.5"/>
							<ScoreDistribution value="0" recordCount="31"/>
							<ScoreDistribution value="1" recordCount="0"/>
						</Node>
						<Node>
							<SimplePredicate field="double(x17)" operator="lessOrEqual" value="4.5"/>
							<Node>
								<SimplePredicate field="double(x21)" operator="lessOrEqual" value="1.5"/>
								<Node score="0" recordCount="8">
									<SimplePredicate field="double(x23)" operator="lessOrEqual" value="16.5"/>
									<ScoreDistribution value="0" recordCount="8"/>
									<ScoreDistribution value="1" recordCount="0"/>
								</Node>
								<Node score="1" recordCount="1">
									<True/>
									<ScoreDistribution value="0" recordCount="0"/>
									<ScoreDistribution value="1" recordCount="1"/>
								</Node>
							</Node>
							<Node score="0" recordCount="21">
								<True/>
								<ScoreDistribution value="0" recordCount="21"/>
								<ScoreDistribution value="1" recordCount="0"/>
							</Node>
						</Node>
						<Node score="1" recordCount="2">
							<SimplePredicate field="double(x30)" operator="lessOrEqual" value="38.5"/>
							<ScoreDistribution value="0" recordCount="0"/>
							<ScoreDistribution value="1" recordCount="2"/>
						</Node>
						<Node score="0" recordCount="4">
							<SimplePredicate field="double(x24)" operator="lessOrEqual" value="1.5"/>
							<ScoreDistribution value="0" recordCount="4"/>
							<ScoreDistribution value="1" recordCount="0"/>
						</Node>
						<Node score="0" recordCount="1">
							<SimplePredicate field="double(x19)" operator="lessOrEqual" value="12.5"/>
							<ScoreDistribution value="0" recordCount="1"/>
							<ScoreDistribution value="1" recordCount="0"/>
						</Node>
						<Node score="1" recordCount="1">
							<True/>
							<ScoreDistribution value="0" recordCount="0"/>
							<ScoreDistribution value="1" recordCount="1"/>
						</Node>
					</Node>
				</TreeModel>
			</Segment>
			<Segment id="4">
				<True/>
				<TreeModel functionName="classification" missingValueStrategy="nullPrediction">
					<MiningSchema>
						<MiningField name="double(x15)"/>
						<MiningField name="double(x22)"/>
						<MiningField name="double(x23)"/>
						<MiningField name="double(x19)"/>
						<MiningField name="double(x30)"/>
						<MiningField name="double(x16)"/>
						<MiningField name="double(x4)"/>
						<MiningField name="double(x27)"/>
						<MiningField name="double(x17)"/>
						<MiningField name="double(x28)"/>
						<MiningField name="double(x24)"/>
						<MiningField name="double(x1)"/>
						<MiningField name="double(x2)"/>
						<MiningField name="double(x12)"/>
						<MiningField name="double(x29)"/>
						<MiningField name="double(x3)"/>
						<MiningField name="double(x14)"/>
						<MiningField name="double(x9)"/>
						<MiningField name="double(x21)"/>
						<MiningField name="double(x26)"/>
						<MiningField name="double(x18)"/>
						<MiningField name="double(x10)"/>
						<MiningField name="double(x7)"/>
						<MiningField name="double(x11)"/>
						<MiningField name="double(x13)"/>
						<MiningField name="double(x5)"/>
						<MiningField name="double(x25)"/>
						<MiningField name="double(x8)"/>
					</MiningSchema>
					<Node>
						<True/>
						<Node>
							<SimplePredicate field="double(x22)" operator="lessOrEqual" value="0.5"/>
							<Node>
								<SimplePredicate field="double(x23)" operator="lessOrEqual" value="12.5"/>
								<Node>
									<SimplePredicate field="double(x15)" operator="lessOrEqual" value="6082.5"/>
									<Node>
										<SimplePredicate field="double(x24)" operator="lessOrEqual" value="0.5"/>
										<Node score="1" recordCount="5">
											<SimplePredicate field="double(x9)" operator="lessOrEqual" value="53.0"/>
